{"sizes":[66,33,1],"layers":[{"0":{},"1":{},"2":{},"3":{},"4":{},"5":{},"6":{},"7":{},"8":{},"9":{},"10":{},"11":{},"12":{},"13":{},"14":{},"15":{},"16":{},"17":{},"18":{},"19":{},"20":{},"21":{},"22":{},"23":{},"24":{},"25":{},"26":{},"27":{},"28":{},"29":{},"30":{},"31":{},"32":{},"33":{},"34":{},"35":{},"36":{},"37":{},"38":{},"39":{},"40":{},"41":{},"42":{},"43":{},"44":{},"45":{},"46":{},"47":{},"48":{},"49":{},"50":{},"51":{},"52":{},"53":{},"54":{},"55":{},"56":{},"57":{},"58":{},"59":{},"60":{},"61":{},"62":{},"63":{},"64":{},"65":{}},{"0":{"bias":0.2689093053340912,"weights":{"0":-0.026795588433742523,"1":0.015310135670006275,"2":0.05386235937476158,"3":0.0056519401259720325,"4":-0.19815802574157715,"5":0.08565986156463623,"6":0.13533447682857513,"7":0.0713784322142601,"8":0.05256896838545799,"9":0.1692890226840973,"10":-0.17160388827323914,"11":0.03670289367437363,"12":0.016899483278393745,"13":-0.04210177809000015,"14":-0.004050276707857847,"15":-0.0009804896544665098,"16":0.16910165548324585,"17":-0.13787612318992615,"18":0.10413084924221039,"19":0.0054547106847167015,"20":0.36480477452278137,"21":-0.014299736358225346,"22":0.03308231011033058,"23":-0.08551689237356186,"24":-0.02683883160352707,"25":0.0009740145760588348,"26":-0.12535472214221954,"27":-0.13056787848472595,"28":0.014852292835712433,"29":0.14009223878383636,"30":0.09775706380605698,"31":0.024570999667048454,"32":0.025273123756051064,"33":0.15158259868621826,"34":-0.18611708283424377,"35":0.026673302054405212,"36":-0.11139677464962006,"37":-0.004641937557607889,"38":-0.037454426288604736,"39":0.13729800283908844,"40":-0.11427892744541168,"41":-0.07570323348045349,"42":0.189255952835083,"43":0.1076493114233017,"44":0.14829200506210327,"45":0.09120909869670868,"46":-0.05984409153461456,"47":-0.137490913271904,"48":0.19314448535442352,"49":0.11486879736185074,"50":0.14663328230381012,"51":-0.13934341073036194,"52":0.06995827704668045,"53":-0.10481435805559158,"54":0.24490304291248322,"55":-0.06234566494822502,"56":0.17238092422485352,"57":-0.19433322548866272,"58":0.2050929069519043,"59":0.2357209026813507,"60":0.020944472402334213,"61":0.6572574377059937,"62":-0.00010627658048179,"63":2.0620269775390625,"64":1.057247281074524,"65":-0.3818724751472473}},"1":{"bias":0.31830257177352905,"weights":{"0":0.2291063368320465,"1":0.17566430568695068,"2":0.0889621153473854,"3":0.13359813392162323,"4":0.12972819805145264,"5":-0.11069687455892563,"6":0.2744646966457367,"7":0.0390593558549881,"8":0.031319476664066315,"9":0.14018261432647705,"10":0.06090094521641731,"11":-0.021604767069220543,"12":0.08756265044212341,"13":0.12923696637153625,"14":-0.005897320806980133,"15":0.12007155269384384,"16":0.1077655777335167,"17":-0.028447110205888748,"18":0.14502795040607452,"19":0.4073382318019867,"20":0.3887745440006256,"21":0.23639839887619019,"22":-0.03318674862384796,"23":0.08065775036811829,"24":-0.01702228933572769,"25":0.17598628997802734,"26":0.15648742020130157,"27":0.080833300948143,"28":0.1511477380990982,"29":-0.1763984113931656,"30":0.027037324383854866,"31":0.11667672544717789,"32":-0.042195212095975876,"33":0.02332843653857708,"34":0.16760700941085815,"35":-0.1957983672618866,"36":-0.08659088611602783,"37":0.003370558610185981,"38":0.156834676861763,"39":-0.13991984724998474,"40":-0.11055776476860046,"41":-0.02165061980485916,"42":0.30615752935409546,"43":-0.055102940648794174,"44":-0.0019565639086067677,"45":-0.1980314403772354,"46":0.0883621871471405,"47":-0.13062991201877594,"48":-0.10240945965051651,"49":-0.05614728108048439,"50":0.08951456844806671,"51":-0.11678258329629898,"52":-0.19099202752113342,"53":-0.15376798808574677,"54":0.06273495405912399,"55":-0.11529288440942764,"56":-0.11039000749588013,"57":-0.027322232723236084,"58":0.08569511026144028,"59":-0.010107755661010742,"60":-0.17787060141563416,"61":0.18071803450584412,"62":0.2684490382671356,"63":-2.2208144664764404,"64":0.4672130048274994,"65":0.16465513408184052}},"2":{"bias":0.32068735361099243,"weights":{"0":-0.0872412770986557,"1":0.3410385251045227,"2":-0.06403034925460815,"3":-0.04666505381464958,"4":-0.1626092493534088,"5":-0.11804783344268799,"6":0.5096827149391174,"7":-0.05766759812831879,"8":0.028445158153772354,"9":-0.21906468272209167,"10":0.03319736570119858,"11":0.24917219579219818,"12":-0.12845665216445923,"13":-0.03762832283973694,"14":-0.05827877297997475,"15":0.2424398809671402,"16":0.10614587366580963,"17":0.04158695042133331,"18":0.04675276577472687,"19":0.2981290817260742,"20":0.31953632831573486,"21":-0.023241741582751274,"22":0.23629239201545715,"23":-0.2663111388683319,"24":-0.16291722655296326,"25":-0.13328583538532257,"26":-0.15323898196220398,"27":0.0867268368601799,"28":-0.019585145637392998,"29":-0.14297139644622803,"30":-0.06610856205224991,"31":-0.19075550138950348,"32":0.14974825084209442,"33":0.019095271825790405,"34":0.07808711379766464,"35":0.06348881870508194,"36":0.1807766556739807,"37":-0.17039842903614044,"38":-0.16808345913887024,"39":0.19699546694755554,"40":0.15518485009670258,"41":0.005497289355844259,"42":0.17172862589359283,"43":-0.19938711822032928,"44":-0.061714183539152145,"45":-0.16799326241016388,"46":-0.07558133453130722,"47":-0.08801250159740448,"48":0.092047318816185,"49":0.19213606417179108,"50":0.03940471634268761,"51":-0.06315844506025314,"52":0.14626221358776093,"53":-0.1453060805797577,"54":0.23719726502895355,"55":-0.03532601147890091,"56":0.3801380693912506,"57":-0.30356332659721375,"58":0.11512639373540878,"59":0.5419318079948425,"60":-0.20545944571495056,"61":-0.13566529750823975,"62":0.16411836445331573,"63":5.3544721603393555,"64":-2.3449440002441406,"65":-0.6912141442298889}},"3":{"bias":-0.30961084365844727,"weights":{"0":-0.13007934391498566,"1":-0.3875270485877991,"2":-0.2006390243768692,"3":-0.16938498616218567,"4":-0.13777749240398407,"5":-0.03654194250702858,"6":-0.49015355110168457,"7":-0.08395448327064514,"8":0.13965991139411926,"9":0.07116198539733887,"10":-0.03303077444434166,"11":-0.10521633923053741,"12":0.16776129603385925,"13":0.02725623920559883,"14":0.0018181692576035857,"15":-0.019867226481437683,"16":-0.26763808727264404,"17":0.13433445990085602,"18":0.017731526866555214,"19":-0.4155524671077728,"20":-0.6209331750869751,"21":-0.3938870131969452,"22":0.01571469195187092,"23":-0.18862788379192352,"24":-0.1596086323261261,"25":0.02568182162940502,"26":-0.02261895313858986,"27":0.023994797840714455,"28":0.00010230702173430473,"29":0.044212374836206436,"30":-0.02461927942931652,"31":-0.11519581079483032,"32":-0.04855111613869667,"33":0.08613014966249466,"34":0.08873867243528366,"35":0.0161946602165699,"36":-0.10210827738046646,"37":0.11202497780323029,"38":-0.07125338912010193,"39":-0.09347360581159592,"40":-0.12063601613044739,"41":-0.20143215358257294,"42":-0.3914217948913574,"43":-0.13837788999080658,"44":-0.12944553792476654,"45":-0.07284848392009735,"46":0.06081823632121086,"47":0.16827233135700226,"48":0.044030845165252686,"49":0.12100232392549515,"50":0.18710070848464966,"51":-0.09577109664678574,"52":-0.09299074858427048,"53":-0.10718154907226562,"54":-0.1412287801504135,"55":-0.11980319768190384,"56":0.029175562784075737,"57":-0.03972061723470688,"58":-0.1456717997789383,"59":-0.04720396548509598,"60":-0.11429819464683533,"61":-0.13724514842033386,"62":-0.4725160002708435,"63":1.9657645225524902,"64":-0.4395943880081177,"65":-0.1798589527606964}},"4":{"bias":0.5200073719024658,"weights":{"0":0.17772255837917328,"1":0.3108658194541931,"2":0.03413613513112068,"3":0.0012241577496752143,"4":0.01121332123875618,"5":-0.06607966870069504,"6":0.18664707243442535,"7":-0.16918717324733734,"8":0.04580006003379822,"9":0.029547322541475296,"10":-0.08062829822301865,"11":0.34231624007225037,"12":-0.1526656150817871,"13":0.13429349660873413,"14":-0.15083059668540955,"15":0.37146371603012085,"16":0.6014447212219238,"17":0.09403473138809204,"18":-0.10218867659568787,"19":0.3751545548439026,"20":0.5600422620773315,"21":0.4183976352214813,"22":-0.026629822328686714,"23":-0.006196212023496628,"24":0.011329707689583302,"25":-0.08013385534286499,"26":-0.03517189249396324,"27":0.13942189514636993,"28":-0.11511316895484924,"29":0.098830945789814,"30":0.11497928947210312,"31":-0.03483986482024193,"32":-0.09882314503192902,"33":0.14275644719600677,"34":0.09583192318677902,"35":-0.00008565789175918326,"36":-0.061384156346321106,"37":-0.10178735107183456,"38":-0.0702173188328743,"39":0.0720253512263298,"40":-0.18029429018497467,"41":-0.05676386132836342,"42":0.3165319859981537,"43":0.14215390384197235,"44":-0.09172992408275604,"45":-0.11246859282255173,"46":0.047560036182403564,"47":0.03944998234510422,"48":-0.13135036826133728,"49":0.13409097492694855,"50":0.11122526228427887,"51":0.10189288854598999,"52":0.134312704205513,"53":0.05852022394537926,"54":-0.07255043089389801,"55":0.2579473555088043,"56":-0.15479664504528046,"57":0.20798853039741516,"58":-0.00478769326582551,"59":0.3570413887500763,"60":0.07335606962442398,"61":0.1222270280122757,"62":0.5447108745574951,"63":-1.789082407951355,"64":0.31084105372428894,"65":0.16325649619102478}},"5":{"bias":-0.4068279564380646,"weights":{"0":0.023862015455961227,"1":-0.27813011407852173,"2":0.1367015391588211,"3":0.13082781434059143,"4":0.008303971961140633,"5":-0.16814936697483063,"6":-0.4721706807613373,"7":-0.22261221706867218,"8":-0.02527218870818615,"9":-0.20721377432346344,"10":-0.11112412065267563,"11":0.0035414020530879498,"12":0.0023561352863907814,"13":0.019043829292058945,"14":0.08887750655412674,"15":-0.3605007529258728,"16":-0.2891824245452881,"17":-0.08543533086776733,"18":0.07217570394277573,"19":-0.22165632247924805,"20":-0.4797608256340027,"21":-0.18833087384700775,"22":-0.286024808883667,"23":0.04201153665781021,"24":-0.09613405168056488,"25":-0.05942022055387497,"26":-0.09145243465900421,"27":-0.15508171916007996,"28":-0.19403807818889618,"29":-0.02707565948367119,"30":-0.01032132375985384,"31":0.08077234774827957,"32":0.12933573126792908,"33":-0.1430063098669052,"34":-0.10411710292100906,"35":-0.04296889156103134,"36":0.17976818978786469,"37":-0.11866895854473114,"38":0.0728541761636734,"39":0.04216410219669342,"40":0.17110200226306915,"41":0.1264345794916153,"42":-0.055438604205846786,"43":0.05959164351224899,"44":-0.0926375761628151,"45":0.14399544894695282,"46":-0.19737455248832703,"47":-0.1280985027551651,"48":0.12875452637672424,"49":-0.03166813403367996,"50":-0.057513389736413956,"51":0.0416228249669075,"52":-0.05703962594270706,"53":-0.20508968830108643,"54":0.05853575840592384,"55":-0.3923149108886719,"56":-0.2004903256893158,"57":0.0754416212439537,"58":0.115348219871521,"59":-0.5266933441162109,"60":0.19770783185958862,"61":-0.7057839632034302,"62":0.020242201164364815,"63":-5.585700511932373,"64":0.7297391891479492,"65":0.3426634967327118}},"6":{"bias":12.960619926452637,"weights":{"0":-1.0253618955612183,"1":15.793173789978027,"2":-17.786327362060547,"3":0.7701903581619263,"4":0.638979971408844,"5":3.6056573390960693,"6":24.163997650146484,"7":1.2506619691848755,"8":2.133397102355957,"9":0.008686051703989506,"10":1.9014973640441895,"11":1.6145625114440918,"12":5.394868850708008,"13":-2.4797146320343018,"14":-7.525571346282959,"15":9.907032012939453,"16":4.581201553344727,"17":7.095287799835205,"18":0.31631365418434143,"19":7.504510879516602,"20":14.042776107788086,"21":-1.0893199443817139,"22":6.19819974899292,"23":-0.8611773252487183,"24":0.20951306819915771,"25":0.7201276421546936,"26":2.7908661365509033,"27":-0.06602544337511063,"28":-0.058200061321258545,"29":0.08145877718925476,"30":-0.23085202276706696,"31":-0.1457393318414688,"32":1.178061604499817,"33":-0.3632155656814575,"34":0.23409664630889893,"35":0.583097517490387,"36":-0.4943029284477234,"37":-1.3336728811264038,"38":-3.5846004486083984,"39":0.5345582962036133,"40":-1.5852587223052979,"41":0.01784723997116089,"42":-0.1086587980389595,"43":0.022170567885041237,"44":1.2240949869155884,"45":-0.9644439220428467,"46":-0.6672405004501343,"47":1.5322731733322144,"48":1.649388313293457,"49":0.14120878279209137,"50":2.9543418884277344,"51":1.7258031368255615,"52":1.6532953977584839,"53":2.1659209728240967,"54":4.092796325683594,"55":13.677472114562988,"56":5.302587032318115,"57":-8.014102935791016,"58":-0.23995690047740936,"59":19.130151748657227,"60":-6.31611442565918,"61":-23.656131744384766,"62":6.114999294281006,"63":45.11598587036133,"64":-24.804258346557617,"65":-45.72972869873047}},"7":{"bias":-0.26285067200660706,"weights":{"0":-0.14827291667461395,"1":-0.2285030335187912,"2":-0.15209516882896423,"3":0.19268669188022614,"4":0.006897822953760624,"5":0.18766093254089355,"6":-0.2463463842868805,"7":0.048249147832393646,"8":0.12790122628211975,"9":-0.1343992054462433,"10":0.06923936307430267,"11":-0.19035515189170837,"12":0.03020169399678707,"13":-0.10639724135398865,"14":0.08143015205860138,"15":-0.13749577105045319,"16":-0.26761874556541443,"17":-0.10995864123106003,"18":-0.1795044094324112,"19":-0.3520274758338928,"20":-0.12283340096473694,"21":0.010879055596888065,"22":0.028780663385987282,"23":-0.02769889123737812,"24":0.08926311135292053,"25":-0.04765357822179794,"26":-0.09027829021215439,"27":0.05100105330348015,"28":-0.06218089535832405,"29":-0.10512609779834747,"30":0.13086159527301788,"31":0.07730888575315475,"32":0.08624045550823212,"33":0.1558457463979721,"34":0.047437090426683426,"35":-0.10912725329399109,"36":0.17974217236042023,"37":-0.07868015766143799,"38":0.03570256382226944,"39":0.15054629743099213,"40":-0.14193308353424072,"41":0.0500069297850132,"42":-0.39177942276000977,"43":0.03329118341207504,"44":-0.10923841595649719,"45":-0.06281574815511703,"46":-0.18111208081245422,"47":0.1257515549659729,"48":-0.13040001690387726,"49":-0.1325632929801941,"50":-0.18403446674346924,"51":-0.15280607342720032,"52":0.10098760575056076,"53":0.04401395469903946,"54":-0.04565880447626114,"55":0.08767545968294144,"56":0.11897741258144379,"57":0.0792631283402443,"58":-0.09535107016563416,"59":-0.12286803126335144,"60":-0.08026304841041565,"61":-0.2392778992652893,"62":-0.20348934829235077,"63":2.8903584480285645,"64":-0.6685910820960999,"65":-0.34158188104629517}},"8":{"bias":-0.1504359096288681,"weights":{"0":-0.16137263178825378,"1":0.06681063771247864,"2":0.053673431277275085,"3":-0.017249181866645813,"4":0.05646831542253494,"5":0.02658037655055523,"6":-0.04115980118513107,"7":-0.13386817276477814,"8":-0.056685835123062134,"9":0.010202459059655666,"10":0.1676858514547348,"11":-0.25457093119621277,"12":-0.03426406905055046,"13":0.16187776625156403,"14":0.06456699222326279,"15":-0.2280624955892563,"16":0.02990095503628254,"17":-0.3295513689517975,"18":-0.012952660210430622,"19":0.008560462854802608,"20":-0.26246047019958496,"21":-0.24623343348503113,"22":-0.08864280581474304,"23":0.17428632080554962,"24":0.15012314915657043,"25":0.012152747251093388,"26":0.06492367386817932,"27":-0.002772413194179535,"28":0.17490485310554504,"29":0.03973379358649254,"30":0.17099860310554504,"31":-0.14428085088729858,"32":-0.08240875601768494,"33":0.11090218275785446,"34":0.01563151925802231,"35":0.04806191474199295,"36":0.14312714338302612,"37":0.18095842003822327,"38":0.16987532377243042,"39":0.09387633949518204,"40":0.0405208021402359,"41":0.10658707469701767,"42":0.03796226903796196,"43":-0.08720613270998001,"44":0.05362776666879654,"45":0.01472016517072916,"46":0.014556437730789185,"47":-0.008213035762310028,"48":0.15145064890384674,"49":-0.05084706470370293,"50":0.14604710042476654,"51":0.022603416815400124,"52":-0.0965346172451973,"53":-0.10358384996652603,"54":0.13923846185207367,"55":-0.04316195473074913,"56":-0.10893614590167999,"57":-0.14789390563964844,"58":-0.010482640005648136,"59":-0.10235949605703354,"60":-0.18583440780639648,"61":1.166208028793335,"62":-0.18864096701145172,"63":0.9467951655387878,"64":0.044840969145298004,"65":-0.07826230674982071}},"9":{"bias":0.20107361674308777,"weights":{"0":0.27689260244369507,"1":-0.09119247645139694,"2":0.146359384059906,"3":0.04215497896075249,"4":-0.02321205474436283,"5":-0.1251523792743683,"6":0.1851239949464798,"7":-0.1604405641555786,"8":0.09736771881580353,"9":-0.15452666580677032,"10":0.14288967847824097,"11":-0.0954439714550972,"12":-0.09523412585258484,"13":-0.051135797053575516,"14":-0.045111801475286484,"15":-0.10851253569126129,"16":0.2839895784854889,"17":0.02817164547741413,"18":0.0999222993850708,"19":0.23839223384857178,"20":0.3154294490814209,"21":0.002371520269662142,"22":0.08895378559827805,"23":0.10870039463043213,"24":0.09842444211244583,"25":-0.03156796842813492,"26":0.06265829503536224,"27":0.1959693431854248,"28":-0.08737663924694061,"29":-0.18245026469230652,"30":-0.14508508145809174,"31":0.12562024593353271,"32":-0.11431678384542465,"33":-0.11092037707567215,"34":-0.0358651839196682,"35":-0.09926113486289978,"36":-0.05716943368315697,"37":-0.05079424008727074,"38":0.07280921190977097,"39":0.003078366396948695,"40":-0.08468686044216156,"41":-0.09669817239046097,"42":0.19086140394210815,"43":0.027858546003699303,"44":-0.14262183010578156,"45":0.03318451717495918,"46":0.19790053367614746,"47":-0.12897466123104095,"48":-0.0892200618982315,"49":0.0670638158917427,"50":0.12017621845006943,"51":-0.007024314720183611,"52":0.14181196689605713,"53":0.10345521569252014,"54":0.1295170783996582,"55":0.21083474159240723,"56":0.07513923197984695,"57":0.058231763541698456,"58":-0.004110624082386494,"59":0.10660164058208466,"60":-0.0020926923025399446,"61":0.6344852447509766,"62":0.22058448195457458,"63":0.5181580185890198,"64":0.40688109397888184,"65":-0.013601737096905708}},"10":{"bias":-7.888881683349609,"weights":{"0":0.6392137408256531,"1":-9.296817779541016,"2":12.141181945800781,"3":-0.45600026845932007,"4":1.1053833961486816,"5":-1.7605156898498535,"6":-17.55975341796875,"7":-0.6205119490623474,"8":-2.103165864944458,"9":-0.24204988777637482,"10":-1.2165958881378174,"11":0.9212274551391602,"12":-5.425686836242676,"13":2.1449341773986816,"14":4.591507434844971,"15":-3.436310052871704,"16":-5.204092025756836,"17":-4.877948760986328,"18":2.712146043777466,"19":-6.537997722625732,"20":-8.402840614318848,"21":1.4361584186553955,"22":-3.334294080734253,"23":1.24594247341156,"24":-0.010968033224344254,"25":-0.28070956468582153,"26":-1.9231071472167969,"27":-0.020473219454288483,"28":0.049980539828538895,"29":0.08199214935302734,"30":0.5050320029258728,"31":-0.19047632813453674,"32":-0.7131690382957458,"33":-0.19361089169979095,"34":0.05126117914915085,"35":-0.310413122177124,"36":0.2874116003513336,"37":0.9565945267677307,"38":2.3847553730010986,"39":-0.14182594418525696,"40":2.755945920944214,"41":0.04854070022702217,"42":0.0029234900139272213,"43":0.04148094356060028,"44":-1.7039527893066406,"45":1.1832324266433716,"46":0.7917287945747375,"47":-1.5598784685134888,"48":-2.0513479709625244,"49":-0.06923525035381317,"50":-1.2628397941589355,"51":-2.106478214263916,"52":-0.9813410043716431,"53":-2.030916452407837,"54":-1.499468445777893,"55":-8.10421085357666,"56":-5.889995098114014,"57":8.029860496520996,"58":-0.8959897756576538,"59":-8.629349708557129,"60":1.3721319437026978,"61":1.0516365766525269,"62":-3.793818950653076,"63":-10.716970443725586,"64":4.703108787536621,"65":32.37704849243164}},"11":{"bias":-0.49356403946876526,"weights":{"0":-0.29945236444473267,"1":-0.4023633599281311,"2":-0.16779614984989166,"3":0.09388485550880432,"4":0.007280515041202307,"5":0.13350647687911987,"6":-0.45644932985305786,"7":-0.04614685848355293,"8":0.15562286972999573,"9":-0.08615091443061829,"10":0.15768568217754364,"11":-0.2074204385280609,"12":-0.15349306166172028,"13":-0.07072098553180695,"14":0.1029432862997055,"15":-0.22140590846538544,"16":-0.39017364382743835,"17":0.02768128365278244,"18":0.12926673889160156,"19":-0.23758098483085632,"20":-0.36463454365730286,"21":-0.22561220824718475,"22":-0.09407003223896027,"23":0.012942606583237648,"24":0.16954758763313293,"25":-0.07854073494672775,"26":0.12197292596101761,"27":-0.03802142292261124,"28":-0.09921490401029587,"29":-0.04905078560113907,"30":0.09844541549682617,"31":-0.1323792040348053,"32":0.08270633220672607,"33":-0.021372390910983086,"34":0.03290991112589836,"35":0.008848254568874836,"36":-0.07291890680789948,"37":-0.030941519886255264,"38":-0.06964599341154099,"39":0.01033990178257227,"40":-0.11863574385643005,"41":-0.0926433876156807,"42":-0.3577270805835724,"43":-0.1090070977807045,"44":0.00680264737457037,"45":0.11232228577136993,"46":-0.04020700231194496,"47":-0.03694133833050728,"48":-0.10878089815378189,"49":0.03706486523151398,"50":0.1850501447916031,"51":-0.1293247491121292,"52":-0.10267676413059235,"53":0.1665402203798294,"54":0.06062026694417,"55":-0.24623940885066986,"56":0.19111000001430511,"57":-0.11875873059034348,"58":0.08891180902719498,"59":-0.17905083298683167,"60":-0.1996583789587021,"61":-0.17179511487483978,"62":-0.5102441906929016,"63":2.280606508255005,"64":-0.49946707487106323,"65":-0.18470223248004913}},"12":{"bias":0.37843623757362366,"weights":{"0":0.40325912833213806,"1":0.025542739778757095,"2":-0.09833069145679474,"3":0.002628969494253397,"4":-0.016072744503617287,"5":-0.07123957574367523,"6":-0.022663883864879608,"7":0.1507701873779297,"8":-0.183645561337471,"9":0.0952283963561058,"10":0.031997956335544586,"11":0.34359976649284363,"12":0.07680199295282364,"13":-0.05408930778503418,"14":0.1726803332567215,"15":0.01799417845904827,"16":0.20725613832473755,"17":0.010733629576861858,"18":0.04603957384824753,"19":0.08162850886583328,"20":0.31714555621147156,"21":0.11637817323207855,"22":0.014494539238512516,"23":-0.0771000012755394,"24":-0.14963290095329285,"25":-0.2081085592508316,"26":-0.05987125635147095,"27":0.19686102867126465,"28":0.13514651358127594,"29":-0.14926260709762573,"30":-0.09790193289518356,"31":-0.16053445637226105,"32":-0.05716890096664429,"33":-0.04749639332294464,"34":-0.1351916790008545,"35":0.18245099484920502,"36":0.14485125243663788,"37":-0.1082138866186142,"38":-0.1771518588066101,"39":-0.05126473680138588,"40":-0.15282274782657623,"41":0.10747229307889938,"42":0.12799394130706787,"43":-0.1775532364845276,"44":0.1705772429704666,"45":0.016863947734236717,"46":-0.10892545431852341,"47":0.04865604266524315,"48":0.21610845625400543,"49":0.1803485006093979,"50":0.18072368204593658,"51":0.05412279814481735,"52":-0.11258392781019211,"53":0.010949503630399704,"54":0.09299535304307938,"55":0.10053418576717377,"56":-0.09006807208061218,"57":-0.01227616984397173,"58":0.04124920815229416,"59":0.024335326626896858,"60":-0.06455101072788239,"61":-2.971151351928711,"62":0.11457718908786774,"63":-3.289503335952759,"64":-0.8980621099472046,"65":0.06884307414293289}},"13":{"bias":-0.22543343901634216,"weights":{"0":0.2333512306213379,"1":-0.21611469984054565,"2":-0.0907345786690712,"3":0.04136690869927406,"4":-0.10620494931936264,"5":0.05076104402542114,"6":-0.03303609788417816,"7":0.14043188095092773,"8":0.032753948122262955,"9":0.03985438495874405,"10":0.06956032663583755,"11":0.09897163510322571,"12":-0.18262280523777008,"13":-0.01901872083544731,"14":-0.0217384435236454,"15":-0.046994179487228394,"16":-0.0686839297413826,"17":-0.1166585236787796,"18":0.16291652619838715,"19":-0.017926422879099846,"20":-0.08500830084085464,"21":0.12090044468641281,"22":-0.26218122243881226,"23":-0.09817542880773544,"24":-0.025398951023817062,"25":-0.06846318393945694,"26":-0.007698518224060535,"27":0.043832603842020035,"28":-0.002615862525999546,"29":0.10701139271259308,"30":-0.1739567518234253,"31":0.1393156349658966,"32":-0.12668383121490479,"33":0.1428968757390976,"34":-0.0654471144080162,"35":-0.038897108286619186,"36":0.14053219556808472,"37":0.08708342164754868,"38":0.1025250107049942,"39":-0.183554008603096,"40":0.030477875843644142,"41":0.0343039408326149,"42":-0.028636496514081955,"43":-0.15738601982593536,"44":-0.21796491742134094,"45":-0.02604961208999157,"46":-0.12745346128940582,"47":0.0861584022641182,"48":0.06000412628054619,"49":-0.06410039961338043,"50":-0.14592181146144867,"51":0.031824223697185516,"52":-0.04448077827692032,"53":0.015266341157257557,"54":0.10646858811378479,"55":-0.08550205826759338,"56":-0.1013798788189888,"57":0.21155451238155365,"58":0.11891008913516998,"59":-0.2575114071369171,"60":0.2125045210123062,"61":0.23942871391773224,"62":0.2884446978569031,"63":-3.6812257766723633,"64":1.1624053716659546,"65":0.7251623272895813}},"14":{"bias":0.5075876712799072,"weights":{"0":0.22603662312030792,"1":0.02936457097530365,"2":-0.2422814816236496,"3":-0.011339866556227207,"4":-0.13134151697158813,"5":-0.041255805641412735,"6":0.1863977015018463,"7":0.11813977360725403,"8":0.18309925496578217,"9":0.0954836905002594,"10":-0.10520591586828232,"11":0.04066409543156624,"12":0.19005784392356873,"13":-0.032489318400621414,"14":-0.09506905823945999,"15":0.14202013611793518,"16":0.1678372323513031,"17":-0.01525089330971241,"18":-0.030008992180228233,"19":0.31082040071487427,"20":0.34649044275283813,"21":0.19651935994625092,"22":-0.06708373874425888,"23":0.008376308716833591,"24":0.0733751729130745,"25":-0.09876881539821625,"26":0.10129588842391968,"27":-0.17506615817546844,"28":-0.12464281171560287,"29":0.02249513566493988,"30":0.17948655784130096,"31":0.050043996423482895,"32":0.1071404293179512,"33":0.09689280390739441,"34":0.10414610803127289,"35":0.11867104470729828,"36":-0.05342340096831322,"37":-0.05371870473027229,"38":0.13269463181495667,"39":-0.19798769056797028,"40":-0.06355155259370804,"41":0.10296396166086197,"42":0.15439221262931824,"43":-0.10411535203456879,"44":-0.016294734552502632,"45":-0.029641633853316307,"46":0.1645205318927765,"47":0.09861239045858383,"48":0.11341649293899536,"49":0.14184999465942383,"50":-0.07738953828811646,"51":0.014241483993828297,"52":-0.059736140072345734,"53":0.16045556962490082,"54":0.022945376113057137,"55":0.21403534710407257,"56":0.10964293777942657,"57":0.059044063091278076,"58":-0.1379140466451645,"59":0.2847636044025421,"60":0.11149793863296509,"61":0.7318780422210693,"62":0.20851409435272217,"63":2.5884737968444824,"64":0.6128677129745483,"65":-0.10110501945018768}},"15":{"bias":0.029002487659454346,"weights":{"0":0.05400146171450615,"1":-0.07805689424276352,"2":0.16833174228668213,"3":-0.06876128166913986,"4":0.045347657054662704,"5":0.06815151870250702,"6":-0.35977330803871155,"7":0.12324048578739166,"8":0.07071638852357864,"9":-0.08701169490814209,"10":0.17081135511398315,"11":0.030484294518828392,"12":-0.21807798743247986,"13":0.18602044880390167,"14":0.16802118718624115,"15":0.1260957270860672,"16":0.03864138945937157,"17":0.015124250203371048,"18":-0.13004964590072632,"19":-0.26515910029411316,"20":-0.22727735340595245,"21":-0.136793851852417,"22":-0.1974629908800125,"23":-0.0914357528090477,"24":0.05208902806043625,"25":0.1609545201063156,"26":-0.19770172238349915,"27":0.10446801781654358,"28":0.09871292114257812,"29":-0.18514660000801086,"30":0.1816706508398056,"31":-0.02679930254817009,"32":-0.13830868899822235,"33":0.0786951333284378,"34":0.13001085817813873,"35":-0.09405504167079926,"36":0.07318241149187088,"37":0.1138266921043396,"38":-0.04116298258304596,"39":0.04619620740413666,"40":0.07480299472808838,"41":0.13737253844738007,"42":-0.18860206007957458,"43":0.06171364709734917,"44":0.11916567385196686,"45":0.07346650958061218,"46":-0.07873702794313431,"47":0.05885671079158783,"48":-0.19105863571166992,"49":0.006540616042912006,"50":-0.1857786774635315,"51":-0.0286177359521389,"52":-0.1853010058403015,"53":-0.1757820099592209,"54":0.18412703275680542,"55":-0.014478394761681557,"56":-0.15720117092132568,"57":0.09032723307609558,"58":0.19364339113235474,"59":-0.08368510007858276,"60":-0.15999385714530945,"61":-0.49321454763412476,"62":0.06479106098413467,"63":-2.269414186477661,"64":0.21111412346363068,"65":0.3526093661785126}},"16":{"bias":0.28215357661247253,"weights":{"0":0.18010875582695007,"1":0.40466904640197754,"2":-0.03853587433695793,"3":-0.10955393314361572,"4":0.08015890419483185,"5":-0.048162758350372314,"6":0.1130070686340332,"7":0.03167004883289337,"8":0.16278523206710815,"9":-0.08971406519412994,"10":0.09501849859952927,"11":0.2519267201423645,"12":-0.1052892804145813,"13":0.0643039122223854,"14":0.1692958027124405,"15":0.22845706343650818,"16":0.2012336552143097,"17":0.03828749433159828,"18":-0.10106934607028961,"19":0.5435383915901184,"20":0.5631150007247925,"21":0.08914969861507416,"22":0.11425965279340744,"23":0.19935083389282227,"24":0.18158936500549316,"25":0.00613266509026289,"26":-0.07511292397975922,"27":-0.02901514619588852,"28":0.028189679607748985,"29":0.07343710958957672,"30":0.12204376608133316,"31":0.16308149695396423,"32":-0.044852640479803085,"33":0.11764128506183624,"34":-0.09805171936750412,"35":-0.022523770108819008,"36":-0.004262247588485479,"37":0.04418512433767319,"38":0.06074948236346245,"39":0.18637588620185852,"40":-0.13583773374557495,"41":0.13824133574962616,"42":0.2651691138744354,"43":-0.04257192462682724,"44":0.21814484894275665,"45":0.14343471825122833,"46":0.17825795710086823,"47":-0.13453446328639984,"48":-0.050440751016139984,"49":0.04506702721118927,"50":0.03461943194270134,"51":-0.075963094830513,"52":-0.14113855361938477,"53":-0.157732293009758,"54":0.08988162875175476,"55":-0.0033574984408915043,"56":0.018494099378585815,"57":0.1386752724647522,"58":-0.11578197032213211,"59":-0.007934070192277431,"60":0.13929039239883423,"61":-0.045828841626644135,"62":0.5304553508758545,"63":-1.884021282196045,"64":0.3293226957321167,"65":-0.016397720202803612}},"17":{"bias":-0.206882044672966,"weights":{"0":-0.1860174536705017,"1":-0.06518468260765076,"2":-0.24970558285713196,"3":-0.040743131190538406,"4":-0.13404875993728638,"5":0.05245404317975044,"6":-0.21859775483608246,"7":-0.11390775442123413,"8":0.16154243052005768,"9":-0.009289082139730453,"10":0.15108129382133484,"11":-0.24386097490787506,"12":0.13337130844593048,"13":0.15181909501552582,"14":-0.08836117386817932,"15":-0.09216661751270294,"16":-0.39192134141921997,"17":0.020693056285381317,"18":-0.14353568851947784,"19":-0.23871780931949615,"20":-0.07959354668855667,"21":-0.1414571851491928,"22":-0.0992845818400383,"23":-0.022657422348856926,"24":0.08489950746297836,"25":0.013255072757601738,"26":-0.07057496905326843,"27":0.1356247216463089,"28":0.09652348607778549,"29":0.16434824466705322,"30":0.02137184888124466,"31":0.1139814481139183,"32":-0.11241443455219269,"33":-0.14506573975086212,"34":0.027593467384576797,"35":0.06438025832176208,"36":-0.14926719665527344,"37":-0.07555466890335083,"38":-0.03309172764420509,"39":0.08735300600528717,"40":-0.04520869255065918,"41":-0.1334821879863739,"42":-0.49167290329933167,"43":0.1510038524866104,"44":0.05905996263027191,"45":-0.0034176816698163748,"46":0.06228883937001228,"47":-0.15222550928592682,"48":0.12173831462860107,"49":-0.04957800358533859,"50":-0.040622152388095856,"51":0.03580981492996216,"52":0.1855890452861786,"53":0.08554054796695709,"54":-0.09032454341650009,"55":-0.24152491986751556,"56":0.1345306932926178,"57":-0.031093601137399673,"58":0.13546934723854065,"59":-0.16548079252243042,"60":-0.22189633548259735,"61":-0.22223463654518127,"62":-0.44841283559799194,"63":2.473628044128418,"64":-0.47835251688957214,"65":-0.11276275664567947}},"18":{"bias":-0.028183015063405037,"weights":{"0":-0.25723159313201904,"1":-0.260053426027298,"2":-0.16793884336948395,"3":0.016414768993854523,"4":0.11733955889940262,"5":-0.14668811857700348,"6":0.016371767967939377,"7":0.08221787959337234,"8":-0.10263079404830933,"9":-0.14188654720783234,"10":-0.1763610988855362,"11":-0.10692078620195389,"12":-0.004940275568515062,"13":-0.03843342885375023,"14":-0.18531152606010437,"15":-0.02469862997531891,"16":-0.07277783006429672,"17":-0.11924576759338379,"18":0.05142134055495262,"19":-0.26513832807540894,"20":-0.1394532322883606,"21":-0.13887548446655273,"22":0.014483056962490082,"23":0.006561435759067535,"24":-0.04541818052530289,"25":0.09418749809265137,"26":0.1624254733324051,"27":-0.054623764008283615,"28":0.1948540061712265,"29":-0.043303634971380234,"30":-0.11057824641466141,"31":-0.05832161009311676,"32":-0.04591159522533417,"33":0.0026711116079241037,"34":0.12612780928611755,"35":-0.058497581630945206,"36":0.1687392294406891,"37":0.028806742280721664,"38":0.187700554728508,"39":-0.023599078878760338,"40":-0.03928682580590248,"41":-0.1779005378484726,"42":-0.21317344903945923,"43":-0.13195616006851196,"44":0.1338685005903244,"45":-0.046689752489328384,"46":0.034357570111751556,"47":-0.15451671183109283,"48":0.04269987344741821,"49":0.13458533585071564,"50":-0.031277433037757874,"51":-0.02802489511668682,"52":-0.1531764417886734,"53":0.19488538801670074,"54":-0.1177082508802414,"55":0.11091993749141693,"56":-0.19967137277126312,"57":-0.1496606022119522,"58":-0.04460563510656357,"59":-0.04781501367688179,"60":-0.08197232335805893,"61":-0.6863918304443359,"62":-0.1308271437883377,"63":-1.567409873008728,"64":-0.2840288579463959,"65":0.04693932458758354}},"19":{"bias":13.163585662841797,"weights":{"0":1.2650439739227295,"1":13.204529762268066,"2":-24.04549789428711,"3":1.063293695449829,"4":-0.2567024827003479,"5":4.760212421417236,"6":26.885887145996094,"7":2.4224445819854736,"8":2.2178263664245605,"9":0.5336207747459412,"10":1.9047060012817383,"11":1.1054877042770386,"12":6.676999568939209,"13":-2.242483377456665,"14":-6.2888994216918945,"15":10.980672836303711,"16":3.8968775272369385,"17":5.876911640167236,"18":1.351644515991211,"19":7.254243850708008,"20":14.488893508911133,"21":2.092855930328369,"22":7.037932872772217,"23":-1.3251373767852783,"24":0.753557026386261,"25":1.2482022047042847,"26":4.052188396453857,"27":-0.21187567710876465,"28":0.17942199110984802,"29":0.19722862541675568,"30":0.3278920352458954,"31":-1.1848294734954834,"32":1.9866790771484375,"33":-1.0718181133270264,"34":0.373954176902771,"35":0.6279071569442749,"36":-1.1360559463500977,"37":-2.185316324234009,"38":-3.6514270305633545,"39":-0.3696907162666321,"40":-0.3233003318309784,"41":0.0073785725980997086,"42":-0.051052674651145935,"43":-0.09559105336666107,"44":0.49082139134407043,"45":-1.1876009702682495,"46":-1.2663224935531616,"47":1.0609670877456665,"48":1.2629042863845825,"49":-0.5851377248764038,"50":2.0393893718719482,"51":1.203580379486084,"52":1.8653465509414673,"53":1.9938076734542847,"54":8.761483192443848,"55":14.051605224609375,"56":5.051559925079346,"57":-11.058338165283203,"58":-1.7854788303375244,"59":17.85519027709961,"60":-7.258924961090088,"61":3.2806038856506348,"62":8.236274719238281,"63":11.552892684936523,"64":-11.016576766967773,"65":-57.09984588623047}},"20":{"bias":-0.17193257808685303,"weights":{"0":-0.10858277976512909,"1":-0.24807022511959076,"2":0.1783514767885208,"3":0.019321616739034653,"4":-0.03718722611665726,"5":-0.09267010539770126,"6":-0.05185897275805473,"7":-0.1795562505722046,"8":-0.18874022364616394,"9":0.13756965100765228,"10":0.1297636479139328,"11":0.08487901091575623,"12":0.0396062396466732,"13":0.07255101948976517,"14":0.015741433948278427,"15":-0.24967814981937408,"16":-0.09919678419828415,"17":0.02655661664903164,"18":0.163289412856102,"19":-0.2925474941730499,"20":-0.15720166265964508,"21":-0.02609899453818798,"22":-0.19714534282684326,"23":0.1335204541683197,"24":-0.05954495817422867,"25":-0.1274782121181488,"26":0.11684410274028778,"27":-0.19226020574569702,"28":0.05356929823756218,"29":-0.17495109140872955,"30":0.07197245210409164,"31":-0.14334625005722046,"32":0.03930036351084709,"33":0.10425829887390137,"34":0.06814057379961014,"35":-0.02511589787900448,"36":-0.18838642537593842,"37":0.1091361716389656,"38":0.027617447078227997,"39":-0.01156175322830677,"40":-0.12368596345186234,"41":-0.18473100662231445,"42":-0.25357937812805176,"43":-0.04454638063907623,"44":0.17693375051021576,"45":0.07093769311904907,"46":-0.16088974475860596,"47":0.0036852103658020496,"48":-0.1726684272289276,"49":-0.012801333330571651,"50":-0.16187413036823273,"51":0.13665707409381866,"52":-0.09424705058336258,"53":0.13645054399967194,"54":-0.003946081269532442,"55":-0.032471343874931335,"56":-0.019206689670681953,"57":-0.096182681620121,"58":0.17873792350292206,"59":0.06608226150274277,"60":0.07620266824960709,"61":-0.8668357133865356,"62":-0.1469843089580536,"63":-0.5249096155166626,"64":-0.18040838837623596,"65":-0.0597318634390831}},"21":{"bias":0.3767183721065521,"weights":{"0":0.02501007169485092,"1":0.3723910450935364,"2":-0.23597678542137146,"3":-0.10041622072458267,"4":0.08862540870904922,"5":-0.09275875240564346,"6":0.24493499100208282,"7":0.20664387941360474,"8":0.10051728039979935,"9":-0.08364807069301605,"10":-0.12272647768259048,"11":0.23785166442394257,"12":-0.01714547537267208,"13":0.07402156293392181,"14":0.10510970652103424,"15":0.10557621717453003,"16":0.20183022320270538,"17":0.03297170624136925,"18":0.09210996329784393,"19":0.2107585221529007,"20":0.13502243161201477,"21":0.038173481822013855,"22":0.1377066969871521,"23":-0.020932577550411224,"24":0.1529814451932907,"25":0.1733919233083725,"26":-0.19426456093788147,"27":0.14320801198482513,"28":0.1940619945526123,"29":0.04293002560734749,"30":-0.1919359564781189,"31":-0.17317859828472137,"32":-0.07821854948997498,"33":0.03566516563296318,"34":-0.19201423227787018,"35":-0.11561883985996246,"36":-0.16777990758419037,"37":0.06929539144039154,"38":-0.13501709699630737,"39":-0.0003319085226394236,"40":0.02176675759255886,"41":-0.15382535755634308,"42":0.24613963067531586,"43":0.02457154542207718,"44":-0.16247883439064026,"45":-0.1070086732506752,"46":-0.011603811755776405,"47":0.057852353900671005,"48":-0.00411259476095438,"49":-0.12542620301246643,"50":-0.1283143013715744,"51":-0.03579258546233177,"52":-0.0021545819472521544,"53":-0.04510458931326866,"54":0.18131931126117706,"55":0.2518363893032074,"56":-0.053990114480257034,"57":0.10529167950153351,"58":0.01674996130168438,"59":0.5121192932128906,"60":0.049714647233486176,"61":0.957832932472229,"62":0.23957425355911255,"63":3.3395755290985107,"64":0.36591672897338867,"65":-0.127240851521492}},"22":{"bias":0.5984224677085876,"weights":{"0":0.14821967482566833,"1":0.38509809970855713,"2":0.03675183653831482,"3":0.070416159927845,"4":0.1844715178012848,"5":-0.028040437027812004,"6":0.2828453481197357,"7":-0.016451064497232437,"8":-0.016015196219086647,"9":0.07495728135108948,"10":-0.007069362327456474,"11":0.05351239815354347,"12":0.08113788068294525,"13":0.15440525114536285,"14":0.08621113002300262,"15":0.16855362057685852,"16":0.17338624596595764,"17":0.10386457294225693,"18":-0.14889410138130188,"19":0.4873022735118866,"20":0.24493348598480225,"21":0.1165706217288971,"22":-0.12098153680562973,"23":0.06347876042127609,"24":-0.06138470396399498,"25":0.08721202611923218,"26":0.18203352391719818,"27":0.17408472299575806,"28":-0.09417656809091568,"29":0.06224615499377251,"30":-0.05591141805052757,"31":0.09170680493116379,"32":0.051960498094558716,"33":0.11815452575683594,"34":0.10873343050479889,"35":0.03884777054190636,"36":-0.09746374934911728,"37":-0.003528136992827058,"38":-0.025162070989608765,"39":-0.16676223278045654,"40":0.16461960971355438,"41":0.05043210834264755,"42":0.29222944378852844,"43":0.01950511895120144,"44":-0.10453755408525467,"45":-0.05115890875458717,"46":-0.013303782790899277,"47":-0.14832434058189392,"48":0.035828351974487305,"49":0.06362143158912659,"50":0.00009521983884042129,"51":0.12026181071996689,"52":0.09671743214130402,"53":0.031400565057992935,"54":-0.15701623260974884,"55":0.0040285917930305,"56":-0.19280563294887543,"57":0.1652320921421051,"58":0.16653332114219666,"59":0.09695540368556976,"60":0.16766057908535004,"61":0.1482907384634018,"62":0.2650274634361267,"63":-1.9171128273010254,"64":0.398762047290802,"65":0.01187144685536623}},"23":{"bias":-0.3882189989089966,"weights":{"0":-0.020405255258083344,"1":-0.6830979585647583,"2":0.48278820514678955,"3":-0.18661557137966156,"4":-0.16449038684368134,"5":-0.25142529606819153,"6":-0.5481206774711609,"7":0.02138298936188221,"8":-0.011996367946267128,"9":0.07969437539577484,"10":-0.21789951622486115,"11":-0.05605334788560867,"12":-0.05030170455574989,"13":0.2697563171386719,"14":-0.0748344138264656,"15":-0.5061246156692505,"16":-0.14051048457622528,"17":-0.019333509728312492,"18":0.037576522678136826,"19":-0.2548278868198395,"20":-0.7725219130516052,"21":-0.1298971176147461,"22":-0.23966921865940094,"23":-0.09438253194093704,"24":0.08952508866786957,"25":-0.2317473590373993,"26":-0.24377010762691498,"27":0.007995275780558586,"28":0.07469220459461212,"29":0.09572198241949081,"30":0.005349679384380579,"31":0.16932405531406403,"32":0.12797811627388,"33":-0.006298287305980921,"34":0.04219057410955429,"35":-0.05477070435881615,"36":-0.05600052326917648,"37":0.14070457220077515,"38":-0.03902937471866608,"39":-0.11650101840496063,"40":-0.2380737066268921,"41":-0.01960022933781147,"42":0.10261618345975876,"43":-0.13051556050777435,"44":-0.1529139131307602,"45":0.09955869615077972,"46":0.012208390049636364,"47":-0.18473437428474426,"48":-0.12492259591817856,"49":-0.19591717422008514,"50":0.10386189073324203,"51":0.166558638215065,"52":-0.04294143244624138,"53":-0.13460274040699005,"54":-0.06785907596349716,"55":-0.3780156970024109,"56":-0.4940386116504669,"57":0.2861041724681854,"58":0.16022269427776337,"59":-0.9618838429450989,"60":0.04111465811729431,"61":0.6330958604812622,"62":-0.07886774837970734,"63":-9.842422485351562,"64":3.3772175312042236,"65":1.3385531902313232}},"24":{"bias":-0.29129543900489807,"weights":{"0":-0.26393118500709534,"1":-0.11840999126434326,"2":0.16964581608772278,"3":-0.12607349455356598,"4":-0.06734447926282883,"5":0.09557371586561203,"6":-0.2299714982509613,"7":0.1586594432592392,"8":0.16550831496715546,"9":0.13539431989192963,"10":0.18915879726409912,"11":0.01715436391532421,"12":-0.040909864008426666,"13":-0.09669239073991776,"14":-0.10260865092277527,"15":-0.21081288158893585,"16":-0.27890074253082275,"17":-0.19907689094543457,"18":-0.11449345201253891,"19":-0.23388493061065674,"20":-0.26315179467201233,"21":-0.15062952041625977,"22":-0.024092653766274452,"23":-0.03903535008430481,"24":-0.028525499626994133,"25":0.11686290800571442,"26":-0.027744976803660393,"27":-0.14904724061489105,"28":0.17910811305046082,"29":-0.20169878005981445,"30":0.04871709272265434,"31":0.12082639336585999,"32":0.1526767611503601,"33":0.045646242797374725,"34":-0.07267532497644424,"35":-0.18647246062755585,"36":0.13045060634613037,"37":0.1353050023317337,"38":0.04428985342383385,"39":0.07875507324934006,"40":0.03807384520769119,"41":-0.19332604110240936,"42":-0.21031741797924042,"43":0.015141939744353294,"44":0.13732850551605225,"45":0.1185261607170105,"46":-0.16918829083442688,"47":0.09382683038711548,"48":0.0553910993039608,"49":-0.0914689153432846,"50":0.17325745522975922,"51":0.13281522691249847,"52":-0.1720004677772522,"53":-0.02052554301917553,"54":-0.11835003644227982,"55":-0.041715871542692184,"56":-0.2048521786928177,"57":0.1424851268529892,"58":0.04392200708389282,"59":-0.001959372777491808,"60":-0.11505157500505447,"61":-0.6287251710891724,"62":0.02914378046989441,"63":-0.7981960773468018,"64":-0.2621122896671295,"65":-0.11802569776773453}},"25":{"bias":0.28459203243255615,"weights":{"0":0.10652419924736023,"1":0.2517359256744385,"2":-0.023727640509605408,"3":0.17241361737251282,"4":0.1054220199584961,"5":-0.06505555659532547,"6":-0.05340668186545372,"7":-0.0623638890683651,"8":0.1395602971315384,"9":0.14194729924201965,"10":-0.023349201306700706,"11":0.15465247631072998,"12":-0.024078158661723137,"13":0.14522390067577362,"14":-0.0726337730884552,"15":-0.024877537041902542,"16":0.015092125162482262,"17":0.15915603935718536,"18":0.18676555156707764,"19":0.008454789407551289,"20":0.1314714550971985,"21":0.2362254559993744,"22":0.14601458609104156,"23":0.171002596616745,"24":0.1932060569524765,"25":-0.03848905861377716,"26":0.15413931012153625,"27":-0.09008986502885818,"28":0.1486709862947464,"29":0.18585661053657532,"30":0.18391311168670654,"31":0.1729045808315277,"32":-0.09547664225101471,"33":0.1213824674487114,"34":-0.09674634039402008,"35":-0.11829382181167603,"36":-0.10699678957462311,"37":-0.056715551763772964,"38":-0.16336050629615784,"39":-0.17067444324493408,"40":-0.18626470863819122,"41":0.007116838824003935,"42":0.02227703668177128,"43":0.1650237888097763,"44":-0.13937067985534668,"45":0.11933237314224243,"46":0.034047964960336685,"47":-0.17574439942836761,"48":-0.1621445268392563,"49":-0.05706959217786789,"50":0.1859690546989441,"51":0.06945578753948212,"52":-0.19317811727523804,"53":0.19621488451957703,"54":-0.07318494468927383,"55":0.02786317840218544,"56":0.13936032354831696,"57":0.09476329386234283,"58":-0.012921151705086231,"59":0.24590861797332764,"60":0.08981596678495407,"61":-5.076109409332275,"62":0.13318611681461334,"63":-2.675765037536621,"64":-0.5566277503967285,"65":-0.1180088147521019}},"26":{"bias":-1.0032641887664795,"weights":{"0":0.30385977029800415,"1":-1.3531153202056885,"2":0.28143465518951416,"3":0.14545542001724243,"4":0.0557478666305542,"5":-0.04303206503391266,"6":-1.1055341958999634,"7":-0.3101484775543213,"8":-0.3140351474285126,"9":-0.249998539686203,"10":-0.20924144983291626,"11":-0.5229561924934387,"12":0.18184205889701843,"13":0.16931931674480438,"14":0.7109844088554382,"15":-0.9701201915740967,"16":-0.32548844814300537,"17":-0.7073360681533813,"18":0.061005011200904846,"19":-0.23129303753376007,"20":-1.2674139738082886,"21":0.3013022243976593,"22":-0.448944091796875,"23":-0.015356610529124737,"24":-0.19310058653354645,"25":-0.25189724564552307,"26":-0.05356154218316078,"27":-0.021593544632196426,"28":0.09153131395578384,"29":0.1215522289276123,"30":-0.14431406557559967,"31":0.2364838868379593,"32":0.011945250444114208,"33":0.06345769762992859,"34":-0.11385626345872879,"35":0.014840983785688877,"36":0.10823304206132889,"37":0.07814700901508331,"38":0.050433963537216187,"39":0.022840214893221855,"40":-0.197673961520195,"41":-0.12986773252487183,"42":-0.29871606826782227,"43":0.023772016167640686,"44":0.07049692422151566,"45":-0.006772642023861408,"46":0.21144556999206543,"47":0.09434882551431656,"48":0.05289427191019058,"49":0.06065705046057701,"50":-0.26370829343795776,"51":-0.02991889789700508,"52":0.07799854874610901,"53":-0.11265651881694794,"54":-0.11742059886455536,"55":-0.737995445728302,"56":-0.40411946177482605,"57":0.33122435212135315,"58":0.0030915981624275446,"59":-1.051047682762146,"60":0.35077187418937683,"61":-0.6447905898094177,"62":-0.3246857523918152,"63":-8.151183128356934,"64":1.0681546926498413,"65":2.142470359802246}},"27":{"bias":-4.472227096557617,"weights":{"0":0.623731255531311,"1":-5.86937141418457,"2":7.450197696685791,"3":-0.21020299196243286,"4":0.11844529211521149,"5":-1.9369882345199585,"6":-9.392609596252441,"7":-0.9782506227493286,"8":-0.4178016483783722,"9":-0.2202034294605255,"10":-0.5622084736824036,"11":0.4184027910232544,"12":-1.046971321105957,"13":0.666751503944397,"14":1.0715687274932861,"15":-4.429575443267822,"16":-0.9008123278617859,"17":-2.9979231357574463,"18":-0.8470232486724854,"19":-1.3727351427078247,"20":-5.007750988006592,"21":-1.0359656810760498,"22":-2.394282341003418,"23":0.131630539894104,"24":-0.027863144874572754,"25":-0.3292233645915985,"26":-1.5384305715560913,"27":-0.05808594077825546,"28":-0.1754968911409378,"29":0.1315593123435974,"30":0.3542218506336212,"31":0.2631479501724243,"32":-0.5071151852607727,"33":0.2941916882991791,"34":-0.06729285418987274,"35":-0.4184161424636841,"36":0.45411041378974915,"37":0.5266059041023254,"38":0.6128860116004944,"39":0.5338552594184875,"40":-0.5646497011184692,"41":0.08682180941104889,"42":0.3104105293750763,"43":-0.044583678245544434,"44":0.2514730989933014,"45":-0.05534270778298378,"46":0.2865481376647949,"47":-0.2671068608760834,"48":-0.3241700828075409,"49":0.18243031203746796,"50":-0.7755073308944702,"51":-0.21738503873348236,"52":-0.4771379232406616,"53":0.27283453941345215,"54":-3.146913528442383,"55":-3.834066867828369,"56":-2.56967830657959,"57":4.4147725105285645,"58":0.15048319101333618,"59":-7.259554386138916,"60":4.207456588745117,"61":4.142444610595703,"62":-3.680018901824951,"63":-31.050457000732422,"64":17.250383377075195,"65":17.84877586364746}},"28":{"bias":-0.2943885028362274,"weights":{"0":0.024864789098501205,"1":-0.21676848828792572,"2":0.11789599806070328,"3":-0.14589372277259827,"4":-0.039206430315971375,"5":0.06696055084466934,"6":-0.25961023569107056,"7":0.10305853188037872,"8":-0.143740713596344,"9":0.13657067716121674,"10":-0.08893600106239319,"11":-0.031809937208890915,"12":0.0845649465918541,"13":0.13110503554344177,"14":-0.0004912384320050478,"15":-0.18379662930965424,"16":-0.4661158621311188,"17":0.12253846228122711,"18":-0.038767047226428986,"19":-0.48395097255706787,"20":-0.26180657744407654,"21":-0.2985698878765106,"22":-0.1502411812543869,"23":-0.15614457428455353,"24":0.13096147775650024,"25":-0.15985779464244843,"26":0.01518647838383913,"27":-0.13008429110050201,"28":-0.03809381648898125,"29":-0.07581007480621338,"30":0.09280485659837723,"31":0.10079104453325272,"32":-0.04285551607608795,"33":0.05642776936292648,"34":-0.09487047046422958,"35":0.20166552066802979,"36":-0.08670146763324738,"37":-0.09097412973642349,"38":-0.13537733256816864,"39":0.027417657896876335,"40":-0.09294667094945908,"41":0.17779405415058136,"42":-0.2904115319252014,"43":-0.10756853967905045,"44":-0.08706474304199219,"45":-0.10638197511434555,"46":0.15393827855587006,"47":0.07704216986894608,"48":0.19225963950157166,"49":-0.05912499502301216,"50":-0.1633201390504837,"51":0.05267378315329552,"52":0.07369574159383774,"53":-0.13225102424621582,"54":0.02442961372435093,"55":0.006540475878864527,"56":-0.022819161415100098,"57":0.013800645247101784,"58":-0.020084047690033913,"59":-0.0971006453037262,"60":0.0668075829744339,"61":-0.2055061012506485,"62":-0.21489651501178741,"63":2.564565658569336,"64":-0.5847237706184387,"65":-0.08307015895843506}},"29":{"bias":8.018735885620117,"weights":{"0":-0.13224321603775024,"1":8.984692573547363,"2":-13.737823486328125,"3":0.5960078239440918,"4":-0.030306080356240273,"5":1.5662500858306885,"6":17.463428497314453,"7":1.3000274896621704,"8":1.620567798614502,"9":0.1320715993642807,"10":1.9112707376480103,"11":-0.23880857229232788,"12":5.622758865356445,"13":-1.5805152654647827,"14":-5.23293924331665,"15":5.127990245819092,"16":3.9357664585113525,"17":5.060184001922607,"18":-1.4789448976516724,"19":5.739581108093262,"20":8.589714050292969,"21":-0.8310333490371704,"22":3.0520801544189453,"23":-0.894123375415802,"24":-0.040729086846113205,"25":0.22276069223880768,"26":2.1210131645202637,"27":-0.2585013210773468,"28":-0.1661120355129242,"29":0.1945067197084427,"30":-0.03378842771053314,"31":0.0172282624989748,"32":0.8668376207351685,"33":-0.06450719386339188,"34":0.017982780933380127,"35":0.767538845539093,"36":-0.26603177189826965,"37":-1.5199695825576782,"38":-3.367711067199707,"39":0.18612608313560486,"40":-3.2833974361419678,"41":0.17724305391311646,"42":0.22272418439388275,"43":0.16743819415569305,"44":1.3759725093841553,"45":-1.3483014106750488,"46":-0.5851653218269348,"47":1.1458820104599,"48":1.9190876483917236,"49":0.2794014513492584,"50":2.0489096641540527,"51":2.1386826038360596,"52":1.349048137664795,"53":1.9871406555175781,"54":1.5914456844329834,"55":8.097991943359375,"56":4.707879543304443,"57":-6.707651615142822,"58":1.229241967201233,"59":10.091252326965332,"60":-2.6045711040496826,"61":-2.321784019470215,"62":3.6721765995025635,"63":12.880863189697266,"64":-2.5375874042510986,"65":-32.70896911621094}},"30":{"bias":0.30337804555892944,"weights":{"0":0.18612892925739288,"1":-0.0609881728887558,"2":0.05694469064474106,"3":0.07943917065858841,"4":-0.13745631277561188,"5":0.06650290638208389,"6":0.22296099364757538,"7":-0.1357652097940445,"8":-0.19787025451660156,"9":-0.009353630244731903,"10":0.122865691781044,"11":0.10963734239339828,"12":-0.18104569613933563,"13":-0.059794832020998,"14":-0.013132026419043541,"15":-0.06404824554920197,"16":0.16317494213581085,"17":0.13718408346176147,"18":-0.062339041382074356,"19":0.04868074506521225,"20":0.3791959583759308,"21":0.19461122155189514,"22":-0.08883470296859741,"23":-0.08237581700086594,"24":0.07314086705446243,"25":0.13278508186340332,"26":0.1025211289525032,"27":-0.19407999515533447,"28":-0.10859689861536026,"29":0.12833397090435028,"30":0.037473488599061966,"31":-0.03049180842936039,"32":-0.07827968150377274,"33":0.012665738351643085,"34":-0.003965556621551514,"35":0.18268445134162903,"36":-0.03279085457324982,"37":-0.16467143595218658,"38":-0.05686390772461891,"39":-0.044432349503040314,"40":0.07067126780748367,"41":0.1978181004524231,"42":0.3807560205459595,"43":-0.0011273346608504653,"44":-0.1298748403787613,"45":-0.06088237091898918,"46":0.12524381279945374,"47":0.12157419323921204,"48":-0.16981665790081024,"49":-0.04140060767531395,"50":-0.15124616026878357,"51":-0.018760548904538155,"52":-0.15611501038074493,"53":-0.1742713898420334,"54":0.051159072667360306,"55":0.17942315340042114,"56":-0.1948365569114685,"57":-0.06335211545228958,"58":0.01388528011739254,"59":0.15736466646194458,"60":0.01753942482173443,"61":0.20218630135059357,"62":0.229768306016922,"63":-2.4588623046875,"64":0.5651354789733887,"65":0.23605622351169586}},"31":{"bias":-0.5148879289627075,"weights":{"0":-0.008036189712584019,"1":-0.674140453338623,"2":0.14578567445278168,"3":-0.21556425094604492,"4":0.14879940450191498,"5":-0.0385856032371521,"6":-0.5346053838729858,"7":0.07112108170986176,"8":0.03471390902996063,"9":-0.21197402477264404,"10":-0.03672896698117256,"11":-0.03786511346697807,"12":0.09199098497629166,"13":0.1575828343629837,"14":0.19058312475681305,"15":-0.12653563916683197,"16":-0.2006598860025406,"17":-0.07935178279876709,"18":-0.12431120872497559,"19":-0.3973461389541626,"20":-0.6732932329177856,"21":0.1127793937921524,"22":-0.20396673679351807,"23":0.016758931800723076,"24":-0.0894099697470665,"25":-0.28010228276252747,"26":-0.045722849667072296,"27":-0.09609687328338623,"28":0.11905393749475479,"29":-0.0020006834529340267,"30":0.11469782888889313,"31":0.06145764887332916,"32":-0.11889925599098206,"33":0.1436750441789627,"34":0.18367472290992737,"35":-0.03847655653953552,"36":0.04804328456521034,"37":-0.10728848725557327,"38":0.18659190833568573,"39":-0.17864230275154114,"40":-0.20587892830371857,"41":-0.2914559245109558,"42":0.13675189018249512,"43":-0.0004735065158456564,"44":-0.06092509627342224,"45":-0.12168041616678238,"46":0.1058822050690651,"47":-0.13833385705947876,"48":-0.011078831739723682,"49":-0.03599242866039276,"50":-0.23797984421253204,"51":0.07498321682214737,"52":-0.06712724268436432,"53":-0.1510256677865982,"54":-0.022440245375037193,"55":-0.4783391058444977,"56":-0.4752746522426605,"57":0.14981940388679504,"58":-0.07152938842773438,"59":-0.47107845544815063,"60":-0.200417622923851,"61":1.2689622640609741,"62":-0.004443458281457424,"63":-7.941601276397705,"64":0.38356372714042664,"65":1.258690357208252}},"32":{"bias":-0.12535671889781952,"weights":{"0":0.014424476772546768,"1":-0.12985587120056152,"2":-0.13000856339931488,"3":0.07388469576835632,"4":-0.16762948036193848,"5":0.21415472030639648,"6":-0.031061256304383278,"7":0.16839337348937988,"8":0.07453128695487976,"9":-0.061813388019800186,"10":-0.14900729060173035,"11":-0.1199774444103241,"12":0.0396830253303051,"13":0.20367178320884705,"14":-0.07979245483875275,"15":-0.002714746166020632,"16":0.033028408885002136,"17":0.013942594639956951,"18":-0.11442867666482925,"19":-0.18078547716140747,"20":-0.17464928328990936,"21":-0.012830046936869621,"22":-0.07197358459234238,"23":-0.10040508955717087,"24":-0.12639309465885162,"25":0.16018390655517578,"26":0.07968758046627045,"27":0.07430356740951538,"28":0.16198453307151794,"29":0.06924505531787872,"30":0.01732761785387993,"31":0.012799442745745182,"32":0.05948114022612572,"33":-0.02834688127040863,"34":0.18720118701457977,"35":0.16402208805084229,"36":0.12405897676944733,"37":0.17434793710708618,"38":0.00433494383469224,"39":-0.14402732253074646,"40":0.1510290503501892,"41":-0.011344961822032928,"42":0.03556190803647041,"43":-0.18148304522037506,"44":-0.1742628514766693,"45":-0.14827924966812134,"46":-0.18788205087184906,"47":0.19901233911514282,"48":-0.16596457362174988,"49":-0.01764405332505703,"50":-0.05781208351254463,"51":-0.1713249534368515,"52":-0.0730532631278038,"53":-0.09479539841413498,"54":0.18433858454227448,"55":0.14194010198116302,"56":0.15070348978042603,"57":-0.09177751839160919,"58":0.1893731951713562,"59":0.060805536806583405,"60":0.08953727036714554,"61":1.7290295362472534,"62":-0.06802823394536972,"63":1.7573951482772827,"64":0.33332359790802,"65":-0.16625498235225677}}},{"0":{"bias":-0.5134627223014832,"weights":{"0":-0.824354350566864,"1":-2.1982758045196533,"2":4.526808261871338,"3":3.3633337020874023,"4":-2.289708137512207,"5":-3.3166935443878174,"6":-5.789885997772217,"7":2.9394054412841797,"8":1.1817694902420044,"9":-0.30993905663490295,"10":4.278234481811523,"11":2.954871654510498,"12":-5.133708953857422,"13":-2.369645595550537,"14":-1.6426483392715454,"15":-2.7608590126037598,"16":-2.137385606765747,"17":2.4527125358581543,"18":0.3841569423675537,"19":-10.173250198364258,"20":0.4809113144874573,"21":-3.396286964416504,"22":-1.9917540550231934,"23":-1.7262617349624634,"24":0.4241957664489746,"25":-3.8837802410125732,"26":1.5508978366851807,"27":5.013124942779541,"28":2.762092113494873,"29":-4.253663539886475,"30":-1.7306491136550903,"31":3.8562498092651367,"32":1.7362276315689087}}}],"outputLookup":false,"inputLookup":false,"activation":"sigmoid","trainOpts":{"iterations":20000,"errorThresh":0.005,"log":false,"logPeriod":10,"learningRate":0.3,"momentum":0.1,"callbackPeriod":10}}